{
  "model_type": "bayesian_logistic_semantic_utility",
  "feature_names": [
    "intercept",
    "q_counting",
    "svc_token",
    "svc_image",
    "snr_z",
    "snr_z:token",
    "snr_z:image",
    "view_ord",
    "fresh_ord",
    "risk_critical",
    "q_counting:token",
    "q_counting:image",
    "view_ord:image",
    "snr_z2"
  ],
  "weights": [
    0.2729731537656107,
    0.4942686160941224,
    0.6941325520076594,
    1.5042254703581412,
    5.411089172867671e-07,
    0.13119955382577317,
    0.04200915942911313,
    0.2417673468982599,
    0.20575390980054092,
    0.21887745185184243,
    -1.6591918154013618,
    -2.6724270380678314,
    0.5378003927290689,
    -0.008919802143556194
  ],
  "covariance": [
    [
      0.00035177091824062097,
      -0.0001090272697370485,
      -0.00011254332704591682,
      -0.0003119850733789555,
      4.550378867093285e-13,
      -2.0401923624565271e-07,
      -1.885697442926525e-07,
      0.00022127526386402134,
      7.565045283576764e-07,
      -1.1684533953148608e-05,
      0.0001092719530018521,
      0.0001126595602638404,
      -0.00022273610493454878,
      -3.934501018093556e-05
    ],
    [
      -0.0001090272697370486,
      0.0003733385273308367,
      0.00011460853787186955,
      0.00010992162353697138,
      1.0322284238358098e-11,
      -8.938253581226782e-08,
      -2.4060188954868165e-08,
      -1.8077051335887124e-06,
      1.4161444884951476e-06,
      -4.9694075200831716e-05,
      -0.0003576966883180381,
      -0.00035663516916747165,
      -4.855625709442424e-06,
      -6.136369713248365e-08
    ],
    [
      -0.0001125433270459168,
      0.00011460853787186955,
      0.00024809723447450017,
      0.00011269327238874196,
      1.0925599077306536e-11,
      3.9609624306662254e-06,
      5.15982786839178e-09,
      3.0402585758985996e-06,
      1.9291055755245826e-06,
      1.6344380076657642e-06,
      -0.0002483728556776484,
      -0.0001154103307747127,
      -2.7481725896363807e-06,
      1.9564520913485404e-08
    ],
    [
      -0.000311985073378956,
      0.0001099216235369711,
      0.000112693272388742,
      0.001171475402784796,
      5.0562779908464694e-12,
      -3.91716709636661e-07,
      3.097069374741331e-06,
      -0.00022139159483373374,
      3.693756496392575e-06,
      9.330466359011534e-06,
      -0.00010986379480625697,
      -0.0003306583143057873,
      0.0009732622182737475,
      -1.4930901052069067e-07
    ],
    [
      4.55037896732271e-13,
      1.0322284237156344e-11,
      1.0925599074104927e-11,
      5.0562779836993615e-12,
      7.810021885112462e-05,
      -7.80999559897919e-05,
      -7.809990864710536e-05,
      4.173432144888654e-12,
      2.9322137558784473e-12,
      3.085570467471518e-12,
      -2.9248716161439035e-11,
      -2.3914569459224037e-11,
      3.060685287408464e-14,
      4.362025901234931e-12
    ],
    [
      -2.0401923624566473e-07,
      -8.938253581226708e-08,
      3.960962430666229e-06,
      -3.9171670963665224e-07,
      -7.80999559897919e-05,
      0.00016222225641085474,
      7.810352889302398e-05,
      5.356680132638343e-07,
      3.495778793419092e-07,
      3.73265080127254e-07,
      -5.723497341240614e-06,
      -7.895664544068228e-08,
      -4.7277618292202373e-07,
      6.233979037341256e-07
    ],
    [
      -1.8856974429266531e-07,
      -2.406018895486918e-08,
      5.159827868395284e-09,
      3.097069374741361e-06,
      -7.809990864710536e-05,
      7.810352889302398e-05,
      0.0001773883785809408,
      1.0148639843634904e-08,
      9.526338874485212e-08,
      9.504924533344299e-08,
      -1.2315851825001069e-08,
      -3.921690661912329e-06,
      1.1843547059303992e-06,
      1.8376151673851362e-07
    ],
    [
      0.00022127526386402153,
      -1.8077051335887484e-06,
      3.04025857589854e-06,
      -0.0002213915948337336,
      4.173432142521019e-12,
      5.35668013263838e-07,
      1.0148639843638348e-08,
      0.0002529745439077035,
      6.477957453622443e-07,
      1.6393297144501737e-05,
      -7.156268334233789e-06,
      -3.847268169277396e-06,
      -0.000250719758046739,
      -3.13408187895547e-08
    ],
    [
      7.565045283576725e-07,
      1.4161444884951474e-06,
      1.929105575524583e-06,
      3.693756496392588e-06,
      2.932213756243352e-12,
      3.4957787934190757e-07,
      9.526338874485186e-08,
      6.477957453622406e-07,
      4.336485582874008e-05,
      5.619647998990676e-07,
      -4.691386514475503e-06,
      -7.221164403509016e-06,
      1.1116875000519206e-06,
      -2.442511973396191e-08
    ],
    [
      -1.1684533953148666e-05,
      -4.969407520083171e-05,
      1.6344380076657966e-06,
      9.33046635901156e-06,
      3.0855704700222436e-12,
      3.732650801272514e-07,
      9.504924533343961e-08,
      1.63932971445017e-05,
      5.619647998990673e-07,
      0.00017418631292690415,
      -5.65569406047438e-06,
      -9.545167055735777e-06,
      7.162831807542852e-06,
      -2.3827476085744452e-08
    ],
    [
      0.00010927195300185222,
      -0.000357696688318038,
      -0.0002483728556776483,
      -0.00010986379480625734,
      -2.9248716163207534e-11,
      -5.723497341240612e-06,
      -1.2315851825000885e-08,
      -7.156268334233749e-06,
      -4.691386514475502e-06,
      -5.655694060474353e-06,
      0.0007208287250389738,
      0.000360218994080998,
      6.213689961156959e-06,
      1.970396716850801e-07
    ],
    [
      0.00011265956026384062,
      -0.0003566351691674716,
      -0.0001154103307747127,
      -0.00033065831430578816,
      -2.3914569461151782e-11,
      -7.895664544068028e-08,
      -3.921690661912326e-06,
      -3.84726816927729e-06,
      -7.221164403509018e-06,
      -9.545167055735789e-06,
      0.000360218994080998,
      0.0008037142981515728,
      -6.603285066246817e-05,
      3.058002262243695e-07
    ],
    [
      -0.00022273610493454932,
      -4.855625709442656e-06,
      -2.7481725896363193e-06,
      0.0009732622182737472,
      3.060685657783045e-14,
      -4.7277618292202903e-07,
      1.1843547059303714e-06,
      -0.00025071975804673925,
      1.1116875000519065e-06,
      7.162831807542841e-06,
      6.213689961157269e-06,
      -6.603285066246727e-05,
      0.001049090857770663,
      -4.449582991131901e-08
    ],
    [
      -3.9345010180935444e-05,
      -6.13636971325415e-08,
      1.9564520913446676e-08,
      -1.4930901052094542e-07,
      4.362025904862146e-12,
      6.233979037341208e-07,
      1.8376151673850803e-07,
      -3.1340818789456323e-08,
      -2.4425119733960786e-08,
      -2.382747608574689e-08,
      1.97039671685149e-07,
      3.058002262244328e-07,
      -4.449582991156773e-08,
      3.9310554739642434e-05
    ]
  ],
  "prior_var": 25.0,
  "dispersion": 25.823588824979208,
  "residual_logit_var": 4.469619663536844,
  "scaler": {
    "snr_mean": 7.5,
    "snr_std": 8.539125638299666
  },
  "config": {
    "prior_var": 25.0,
    "z": 1.96,
    "cache_snr_invariant": true
  }
}